{
    "epoch": 5,
    "model_state_dict": {
        "conv1.weight": [
            [
                [
                    [
                        -0.022784799337387085,
                        -0.042853258550167084,
                        -0.07176949828863144,
                        0.07780295610427856,
                        -0.10310370475053787
                    ],
                    [
                        -0.04586492478847504,
                        -0.03728456795215607,
                        0.06153304874897003,
                        0.013848662376403809,
                        -0.02039254456758499
                    ],
                    [
                        -0.023410625755786896,
                        0.10289646685123444,
                        -0.032499685883522034,
                        -0.051034748554229736,
                        -0.048100098967552185
                    ],
                    [
                        0.0838344544172287,
                        0.0529332160949707,
                        -0.008232727646827698,
                        0.021670058369636536,
                        0.08553977310657501
                    ],
                    [
                        -0.044102370738983154,
                        -0.08190775662660599,
                        -0.08793734014034271,
                        -0.012897036969661713,
                        -0.04601813107728958
                    ]
                ],
                [
                    [
                        0.07758061587810516,
                        0.0005021393299102783,
                        -0.05258921533823013,
                        0.07685306668281555,
                        0.08811862766742706
                    ],
                    [
                        0.04538622498512268,
                        0.030182793736457825,
                        0.10715785622596741,
                        -0.00371619313955307,
                        0.07735522091388702
                    ],
                    [
                        0.021738901734352112,
                        -0.06331995129585266,
                        -0.020752444863319397,
                        0.09512713551521301,
                        0.009728878736495972
                    ],
                    [
                        -0.045897163450717926,
                        -0.032974548637866974,
                        0.05696140229701996,
                        -0.08996912837028503,
                        -0.07167260348796844
                    ],
                    [
                        0.06148460507392883,
                        0.013852357864379883,
                        -0.1152208223938942,
                        0.0076393261551856995,
                        0.08121001720428467
                    ]
                ],
                [
                    [
                        -0.08412635326385498,
                        -0.015658147633075714,
                        0.02717575430870056,
                        0.09560500085353851,
                        -0.07820373773574829
                    ],
                    [
                        -0.09362596273422241,
                        -0.11408555507659912,
                        -0.0014794021844863892,
                        0.10768391191959381,
                        -0.006745614111423492
                    ],
                    [
                        0.015852883458137512,
                        -0.030508026480674744,
                        0.09005922079086304,
                        -0.11074424535036087,
                        -0.03177225589752197
                    ],
                    [
                        0.050504863262176514,
                        -0.017411135137081146,
                        0.08371390402317047,
                        0.02850651741027832,
                        0.08740440011024475
                    ],
                    [
                        -0.10235647857189178,
                        0.021098196506500244,
                        -0.06069863960146904,
                        -0.07985317707061768,
                        -0.06528881937265396
                    ]
                ]
            ],
            [
                [
                    [
                        -0.07809536159038544,
                        0.07441185414791107,
                        0.0006965547800064087,
                        -0.04056290537118912,
                        -0.03601539880037308
                    ],
                    [
                        -0.10621834546327591,
                        -0.03644440323114395,
                        -0.10174621641635895,
                        0.06629344820976257,
                        0.11278557777404785
                    ],
                    [
                        0.09175042808055878,
                        0.08674837648868561,
                        -0.047196075320243835,
                        0.11209677159786224,
                        0.09409023821353912
                    ],
                    [
                        -0.10542042553424835,
                        -0.014118015766143799,
                        -0.1038067564368248,
                        -0.03813387453556061,
                        -0.04167397320270538
                    ],
                    [
                        0.07888329029083252,
                        0.0872282087802887,
                        -0.008832529187202454,
                        0.06699986755847931,
                        0.06345240771770477
                    ]
                ],
                [
                    [
                        -0.0910104513168335,
                        -0.01830725371837616,
                        0.05731838941574097,
                        0.011489614844322205,
                        0.0001093745231628418
                    ],
                    [
                        -0.0928029716014862,
                        0.08607928454875946,
                        0.02698640525341034,
                        0.04254509508609772,
                        -0.10648892819881439
                    ],
                    [
                        0.05223739147186279,
                        -0.0044438838958740234,
                        0.052831172943115234,
                        0.09373851120471954,
                        -0.07506676018238068
                    ],
                    [
                        -0.02396504580974579,
                        -0.008777663111686707,
                        0.045526519417762756,
                        -0.09327628463506699,
                        -0.008503958582878113
                    ],
                    [
                        -0.0637846365571022,
                        0.07964877784252167,
                        -0.04141516238451004,
                        -0.10951732099056244,
                        -0.012216158211231232
                    ]
                ],
                [
                    [
                        -0.004565015435218811,
                        -0.049378782510757446,
                        -0.0516074076294899,
                        -0.05512239411473274,
                        -0.04010746628046036
                    ],
                    [
                        -0.03855225443840027,
                        0.07708406448364258,
                        0.022382080554962158,
                        -0.09764270484447479,
                        0.05101552605628967
                    ],
                    [
                        -0.02633802592754364,
                        0.10499212145805359,
                        0.11146277189254761,
                        -0.035821422934532166,
                        -0.10731036216020584
                    ],
                    [
                        0.029604554176330566,
                        -0.05766161531209946,
                        -0.022118687629699707,
                        0.046031951904296875,
                        0.010142743587493896
                    ],
                    [
                        -0.07210861146450043,
                        -0.1095050722360611,
                        0.051475003361701965,
                        -0.09032107144594193,
                        -0.032061703503131866
                    ]
                ]
            ],
            [
                [
                    [
                        0.06276281177997589,
                        -0.003418855369091034,
                        -0.007358767092227936,
                        -0.03971828520298004,
                        0.022936880588531494
                    ],
                    [
                        -0.01692427694797516,
                        0.038663119077682495,
                        -0.055811092257499695,
                        0.11498500406742096,
                        0.10258638858795166
                    ],
                    [
                        -0.06740784645080566,
                        -0.10973165929317474,
                        -0.07128383219242096,
                        0.05838003754615784,
                        -0.0526030957698822
                    ],
                    [
                        -0.09049966931343079,
                        0.043799713253974915,
                        -0.06952954828739166,
                        0.055675312876701355,
                        0.047599658370018005
                    ],
                    [
                        -0.058445483446121216,
                        -0.11288020014762878,
                        0.09444086253643036,
                        -0.0904250517487526,
                        -0.11132922023534775
                    ]
                ],
                [
                    [
                        -0.08145542442798615,
                        0.001066066324710846,
                        -0.022780954837799072,
                        0.03118501603603363,
                        0.11068086326122284
                    ],
                    [
                        0.02668014168739319,
                        -0.06781643629074097,
                        0.08003747463226318,
                        -0.0899975523352623,
                        0.06175626814365387
                    ],
                    [
                        -0.11521770805120468,
                        0.1095941811800003,
                        -0.1127929612994194,
                        -0.04734848439693451,
                        -0.07252177596092224
                    ],
                    [
                        0.0189572274684906,
                        0.01896628737449646,
                        0.02572527527809143,
                        -0.04202147573232651,
                        -0.012908227741718292
                    ],
                    [
                        -0.061836931854486465,
                        -0.025908537209033966,
                        -0.06232988461852074,
                        -0.08003613352775574,
                        -0.005285978317260742
                    ]
                ],
                [
                    [
                        0.004277877509593964,
                        -0.06751279532909393,
                        -0.01667395979166031,
                        0.08432641625404358,
                        -0.08314939588308334
                    ],
                    [
                        0.0909433513879776,
                        -0.09455327689647675,
                        -0.053959548473358154,
                        0.03996150195598602,
                        0.019466981291770935
                    ],
                    [
                        0.10095340013504028,
                        -0.11259140819311142,
                        -0.11096417158842087,
                        0.00037482380867004395,
                        0.08502620458602905
                    ],
                    [
                        0.06160031259059906,
                        -0.029217146337032318,
                        -0.08875846862792969,
                        0.10271823406219482,
                        0.10645271837711334
                    ],
                    [
                        -0.0304177924990654,
                        -0.03439052402973175,
                        -0.061563897877931595,
                        -0.09133105725049973,
                        0.09050525724887848
                    ]
                ]
            ],
            [
                [
                    [
                        -0.013958849012851715,
                        -0.014537326991558075,
                        -0.03459955006837845,
                        -0.08228789269924164,
                        -0.10173588991165161
                    ],
                    [
                        0.1143178641796112,
                        0.014880746603012085,
                        0.05036453902721405,
                        -0.06392206251621246,
                        -0.018304795026779175
                    ],
                    [
                        -0.02239740639925003,
                        0.05749565362930298,
                        -0.09624065458774567,
                        0.012212350964546204,
                        0.04727800190448761
                    ],
                    [
                        0.09614013135433197,
                        0.052365243434906006,
                        -0.05316811054944992,
                        -0.10163919627666473,
                        -0.0802857056260109
                    ],
                    [
                        -0.04356886446475983,
                        -0.002847515046596527,
                        0.07899639010429382,
                        0.028170719742774963,
                        -0.012154892086982727
                    ]
                ],
                [
                    [
                        0.07078959047794342,
                        0.07916572690010071,
                        -0.010457813739776611,
                        -0.06933853030204773,
                        -0.02596604824066162
                    ],
                    [
                        0.11528851091861725,
                        -0.09339110553264618,
                        -0.04735535383224487,
                        -0.08971954882144928,
                        0.08731670677661896
                    ],
                    [
                        0.01697312295436859,
                        0.007346905767917633,
                        -0.06148657947778702,
                        0.02127237617969513,
                        0.08064354956150055
                    ],
                    [
                        -0.034772299230098724,
                        -0.04164326190948486,
                        0.041601359844207764,
                        -0.0799340307712555,
                        -0.023984573781490326
                    ],
                    [
                        -0.07292169332504272,
                        -0.06491661071777344,
                        0.02049940824508667,
                        0.013283342123031616,
                        0.010530129075050354
                    ]
                ],
                [
                    [
                        -0.06134950742125511,
                        -0.011616922914981842,
                        0.07807983458042145,
                        0.06536480784416199,
                        -0.07729543000459671
                    ],
                    [
                        -0.09454420208930969,
                        -0.005826234817504883,
                        0.02872365713119507,
                        0.059809282422065735,
                        0.09612752497196198
                    ],
                    [
                        0.046921372413635254,
                        -0.00956253707408905,
                        0.006058588624000549,
                        -0.09904260188341141,
                        0.029212847352027893
                    ],
                    [
                        -0.05237797647714615,
                        0.043725207448005676,
                        -0.10984699428081512,
                        -0.0011315494775772095,
                        -0.09870356321334839
                    ],
                    [
                        -0.04081471264362335,
                        0.07559187710285187,
                        0.020486056804656982,
                        -0.079988494515419,
                        0.0938890129327774
                    ]
                ]
            ],
            [
                [
                    [
                        -0.05599335581064224,
                        -0.044246383011341095,
                        -0.11039958149194717,
                        0.04864548146724701,
                        0.106113001704216
                    ],
                    [
                        0.03655850887298584,
                        -0.015584960579872131,
                        -0.09122131019830704,
                        -0.02575468271970749,
                        0.06975194811820984
                    ],
                    [
                        -0.030992694199085236,
                        -0.004980683326721191,
                        -0.038138918578624725,
                        0.11418470740318298,
                        0.11215969920158386
                    ],
                    [
                        0.03825537860393524,
                        -0.03895428776741028,
                        -0.025363706052303314,
                        -0.013934001326560974,
                        -0.1040676161646843
                    ],
                    [
                        0.09279465675354004,
                        0.018716365098953247,
                        0.11210842430591583,
                        -0.08306849002838135,
                        -0.0475674569606781
                    ]
                ],
                [
                    [
                        -0.014978274703025818,
                        0.04584088921546936,
                        -0.031501755118370056,
                        -0.07641124725341797,
                        0.10974165797233582
                    ],
                    [
                        0.006436064839363098,
                        0.024851098656654358,
                        0.051460057497024536,
                        0.004384174942970276,
                        0.10164880752563477
                    ],
                    [
                        0.09559433162212372,
                        0.10167627036571503,
                        0.06494607031345367,
                        0.09039419889450073,
                        -0.04513884335756302
                    ],
                    [
                        0.1039738655090332,
                        0.052140578627586365,
                        0.09445233643054962,
                        -0.06047038733959198,
                        -0.08802304416894913
                    ],
                    [
                        0.00787760317325592,
                        0.020498409867286682,
                        0.014381200075149536,
                        0.06524764001369476,
                        -0.06832504272460938
                    ]
                ],
                [
                    [
                        0.1118057370185852,
                        -0.04171310365200043,
                        -0.009591259062290192,
                        -0.023971639573574066,
                        -0.052431799471378326
                    ],
                    [
                        0.016788318753242493,
                        -0.06181500107049942,
                        0.0896558165550232,
                        -0.050988584756851196,
                        -0.10817095637321472
                    ],
                    [
                        0.04330439865589142,
                        -0.00351705402135849,
                        -0.00538867712020874,
                        0.03132361173629761,
                        0.015260130167007446
                    ],
                    [
                        -0.010292880237102509,
                        -0.05387356877326965,
                        0.04939959943294525,
                        -0.0385054275393486,
                        -0.04921961575746536
                    ],
                    [
                        0.11302262544631958,
                        0.025224685668945312,
                        0.09587015211582184,
                        0.08830052614212036,
                        0.018590047955513
                    ]
                ]
            ],
            [
                [
                    [
                        0.10321459174156189,
                        0.02127319574356079,
                        0.021177321672439575,
                        0.05784417688846588,
                        -0.05253085494041443
                    ],
                    [
                        -0.05775550752878189,
                        -0.11372833698987961,
                        -0.023613400757312775,
                        -0.09594298899173737,
                        0.02574928104877472
                    ],
                    [
                        0.07729265093803406,
                        -0.10389748215675354,
                        0.013716578483581543,
                        -0.05931166559457779,
                        0.034912437200546265
                    ],
                    [
                        -0.040969885885715485,
                        0.039289891719818115,
                        -0.05352123826742172,
                        -0.03895573318004608,
                        -0.019324883818626404
                    ],
                    [
                        0.028534233570098877,
                        0.011571511626243591,
                        -0.07374946773052216,
                        -0.005696289241313934,
                        0.025254905223846436
                    ]
                ],
                [
                    [
                        -0.09419047832489014,
                        -0.10556421428918839,
                        0.0814124345779419,
                        0.10424518585205078,
                        0.10663841664791107
                    ],
                    [
                        -0.028602108359336853,
                        -0.08805637061595917,
                        0.06890794634819031,
                        0.0634375810623169,
                        -0.06352394074201584
                    ],
                    [
                        0.0366121381521225,
                        0.06963136792182922,
                        -0.04745400696992874,
                        -0.0008853301405906677,
                        0.04886196553707123
                    ],
                    [
                        0.08450894057750702,
                        -0.05500759556889534,
                        -0.07654838263988495,
                        0.05324248969554901,
                        -0.08116471767425537
                    ],
                    [
                        -0.027052462100982666,
                        -0.04421341419219971,
                        -0.07918554544448853,
                        0.08987407386302948,
                        -0.02904512733221054
                    ]
                ],
                [
                    [
                        0.05817313492298126,
                        -0.044134221971035004,
                        -0.06330438703298569,
                        -0.026668980717658997,
                        -0.013346754014492035
                    ],
                    [
                        -0.0764908641576767,
                        0.10094888508319855,
                        0.018058165907859802,
                        -0.07338974624872208,
                        0.10103510320186615
                    ],
                    [
                        -0.01675310730934143,
                        0.05762118101119995,
                        0.057034626603126526,
                        -0.07589265704154968,
                        -0.020292937755584717
                    ],
                    [
                        0.015135735273361206,
                        0.10202735662460327,
                        0.0872776061296463,
                        0.08228741586208344,
                        -0.01936095952987671
                    ],
                    [
                        -0.03741621971130371,
                        -0.03311055153608322,
                        -0.022383809089660645,
                        0.06152920424938202,
                        -0.10150022059679031
                    ]
                ]
            ]
        ],
        "conv1.bias": [
            0.061176151037216187,
            -0.11324697732925415,
            0.07248695194721222,
            0.11464700102806091,
            -0.00919891893863678,
            -0.08552836626768112
        ],
        "conv2.weight": [
            [
                [
                    [
                        -0.023820944130420685,
                        -0.006966337561607361,
                        0.05663256347179413,
                        -0.03194288909435272,
                        -0.055165551602840424
                    ],
                    [
                        0.07521584630012512,
                        -0.029117800295352936,
                        -0.05799861252307892,
                        0.07202953100204468,
                        -0.02631562203168869
                    ],
                    [
                        -0.07697684317827225,
                        -0.06701712310314178,
                        0.04348273575305939,
                        -0.04584397375583649,
                        -0.015895433723926544
                    ],
                    [
                        0.03733498603105545,
                        0.03797979652881622,
                        -0.05492113530635834,
                        -0.04451833292841911,
                        0.06287679076194763
                    ],
                    [
                        0.08111713826656342,
                        -0.04617482051253319,
                        0.06179003417491913,
                        0.025869451463222504,
                        0.031106092035770416
                    ]
                ],
                [
                    [
                        -0.02623433992266655,
                        0.023371443152427673,
                        -0.0006454586982727051,
                        0.05539870262145996,
                        -0.01400265097618103
                    ],
                    [
                        0.060675978660583496,
                        0.05900290608406067,
                        0.056919440627098083,
                        0.03808151185512543,
                        -0.03975806012749672
                    ],
                    [
                        -0.01191970705986023,
                        0.06554719805717468,
                        -0.04875875636935234,
                        -0.07872004806995392,
                        0.07421271502971649
                    ],
                    [
                        0.015619739890098572,
                        -0.0671243667602539,
                        -0.04450578615069389,
                        0.04592283070087433,
                        0.06087613105773926
                    ],
                    [
                        -0.023290172219276428,
                        0.019930757582187653,
                        0.02138640731573105,
                        0.05645592510700226,
                        -0.04489337280392647
                    ]
                ],
                [
                    [
                        -0.0011903941631317139,
                        -0.07603120058774948,
                        -0.0410841666162014,
                        0.07278212904930115,
                        -0.0687934011220932
                    ],
                    [
                        0.07132402062416077,
                        0.019114673137664795,
                        0.01193506270647049,
                        0.03037285804748535,
                        0.009472541511058807
                    ],
                    [
                        -0.03148956596851349,
                        0.026302210986614227,
                        -0.0679721087217331,
                        -0.011643804609775543,
                        0.03786826133728027
                    ],
                    [
                        -0.04035104811191559,
                        0.016097091138362885,
                        0.011225797235965729,
                        -0.04136300086975098,
                        -0.006691791117191315
                    ],
                    [
                        0.003834657371044159,
                        0.033675603568553925,
                        0.029047921299934387,
                        0.06767532229423523,
                        0.0494103729724884
                    ]
                ],
                [
                    [
                        -0.03992775082588196,
                        0.06009690463542938,
                        -0.05777806416153908,
                        -0.0037724897265434265,
                        -0.07688265293836594
                    ],
                    [
                        0.03573547303676605,
                        0.0037512928247451782,
                        -0.0587778314948082,
                        -0.06258765608072281,
                        0.015982024371623993
                    ],
                    [
                        -0.009560622274875641,
                        -0.036466632038354874,
                        0.05881018936634064,
                        -0.003390297293663025,
                        0.025658071041107178
                    ],
                    [
                        -0.06613500416278839,
                        0.06579859554767609,
                        -0.059527866542339325,
                        0.004511497914791107,
                        0.005460426211357117
                    ],
                    [
                        -0.07106342911720276,
                        -0.055077094584703445,
                        0.06681182980537415,
                        0.0641968697309494,
                        -0.019182346761226654
                    ]
                ],
                [
                    [
                        0.024106480181217194,
                        0.04238150268793106,
                        -0.04574712738394737,
                        0.05909466743469238,
                        -0.051922403275966644
                    ],
                    [
                        0.005271822214126587,
                        -0.020049545913934708,
                        0.07165956497192383,
                        -0.07089667022228241,
                        0.014943264424800873
                    ],
                    [
                        0.032843850553035736,
                        0.072477787733078,
                        -0.009929299354553223,
                        -0.012997947633266449,
                        -0.019130125641822815
                    ],
                    [
                        0.014784835278987885,
                        0.07148811221122742,
                        0.0503271222114563,
                        0.03994140774011612,
                        0.012142501771450043
                    ],
                    [
                        -0.0021337196230888367,
                        -0.021834775805473328,
                        0.06034348905086517,
                        0.04675942659378052,
                        0.04548187553882599
                    ]
                ],
                [
                    [
                        -0.015499785542488098,
                        0.002633713185787201,
                        0.054584234952926636,
                        0.07121428847312927,
                        -0.040775831788778305
                    ],
                    [
                        0.026460252702236176,
                        -0.0186837837100029,
                        -0.046491000801324844,
                        -0.047389764338731766,
                        0.060773298144340515
                    ],
                    [
                        0.06717118620872498,
                        -0.08002723008394241,
                        -0.0009238049387931824,
                        0.038929492235183716,
                        -0.037767764180898666
                    ],
                    [
                        -0.010599799454212189,
                        -0.07302043586969376,
                        -0.01321827620267868,
                        -0.026288021355867386,
                        0.04010862857103348
                    ],
                    [
                        -0.016677089035511017,
                        0.03312753885984421,
                        0.0729546993970871,
                        0.03773035109043121,
                        0.047887906432151794
                    ]
                ]
            ],
            [
                [
                    [
                        0.01708117127418518,
                        -0.02879616990685463,
                        -0.016602084040641785,
                        -0.02422882243990898,
                        -0.010800428688526154
                    ],
                    [
                        -0.054672788828611374,
                        -0.03480736166238785,
                        -0.05324689298868179,
                        -0.012322813272476196,
                        -0.019797448068857193
                    ],
                    [
                        0.019902005791664124,
                        -0.010457232594490051,
                        0.024700835347175598,
                        -0.0245501808822155,
                        -0.02678310126066208
                    ],
                    [
                        0.018444977700710297,
                        -0.017049401998519897,
                        -0.009583570063114166,
                        -0.026215672492980957,
                        0.02779226005077362
                    ],
                    [
                        -0.01075204461812973,
                        -0.035124603658914566,
                        0.05437670648097992,
                        0.016406439244747162,
                        0.014647059142589569
                    ]
                ],
                [
                    [
                        -0.06563210487365723,
                        0.02282954752445221,
                        0.021982312202453613,
                        -0.04220931977033615,
                        -0.08148593455553055
                    ],
                    [
                        -0.00964219868183136,
                        0.08028948307037354,
                        -0.05745607614517212,
                        0.05296798050403595,
                        0.06813718378543854
                    ],
                    [
                        0.05013188719749451,
                        0.051094621419906616,
                        0.055549025535583496,
                        0.03970826417207718,
                        0.024019330739974976
                    ],
                    [
                        -0.016077540814876556,
                        -0.015326254069805145,
                        -0.04451259970664978,
                        0.023880675435066223,
                        0.009167350828647614
                    ],
                    [
                        0.01848532259464264,
                        0.017659030854701996,
                        0.05448278784751892,
                        0.0603814423084259,
                        -0.055662062019109726
                    ]
                ],
                [
                    [
                        -0.06295698881149292,
                        -0.047358762472867966,
                        0.05712127685546875,
                        -0.01095966249704361,
                        0.02768661081790924
                    ],
                    [
                        -0.048857785761356354,
                        -0.06380631029605865,
                        -0.07665444165468216,
                        0.04051169008016586,
                        -0.0321628637611866
                    ],
                    [
                        -0.026312682777643204,
                        -0.02893291413784027,
                        0.029649868607521057,
                        0.008532308042049408,
                        0.03397674858570099
                    ],
                    [
                        0.010973237454891205,
                        -0.05881601572036743,
                        -0.03167618438601494,
                        -0.02936156466603279,
                        -0.054786961525678635
                    ],
                    [
                        -0.015673302114009857,
                        -0.07688133418560028,
                        -0.06021987274289131,
                        0.06388625502586365,
                        -0.05002767965197563
                    ]
                ],
                [
                    [
                        -0.06875152885913849,
                        0.044102996587753296,
                        -0.05935307592153549,
                        -0.05993163585662842,
                        0.04853688180446625
                    ],
                    [
                        -0.04097507521510124,
                        -0.08083228021860123,
                        -0.014626964926719666,
                        0.038956768810749054,
                        0.00045450031757354736
                    ],
                    [
                        0.006737597286701202,
                        0.019377782940864563,
                        -0.01349426805973053,
                        -0.06768617779016495,
                        0.039823226630687714
                    ],
                    [
                        0.019524000585079193,
                        -0.02846584841609001,
                        -0.01760803908109665,
                        0.021843068301677704,
                        0.014294974505901337
                    ],
                    [
                        0.07751090824604034,
                        -0.06540898233652115,
                        0.033392585813999176,
                        -0.004027761518955231,
                        0.07989229261875153
                    ]
                ],
                [
                    [
                        -0.06675266474485397,
                        -0.06229892373085022,
                        -0.06450317800045013,
                        -0.04943538457155228,
                        -0.061510249972343445
                    ],
                    [
                        -0.0017922669649124146,
                        0.03181133419275284,
                        0.0209127739071846,
                        0.027397967875003815,
                        0.01813650131225586
                    ],
                    [
                        -0.025904465466737747,
                        -0.07046842575073242,
                        -0.07176163047552109,
                        -0.07398044317960739,
                        0.05098956823348999
                    ],
                    [
                        0.05604757368564606,
                        0.04048959165811539,
                        0.0654432475566864,
                        0.051385894417762756,
                        -0.06130232289433479
                    ],
                    [
                        -0.06389544904232025,
                        0.055757299065589905,
                        0.057868823409080505,
                        -0.03541596978902817,
                        0.05648501217365265
                    ]
                ],
                [
                    [
                        -0.06284081935882568,
                        -0.025196362286806107,
                        -0.04340827837586403,
                        -0.07016628235578537,
                        0.04361462593078613
                    ],
                    [
                        0.07160960137844086,
                        0.051521867513656616,
                        -0.0351644903421402,
                        -0.07229922711849213,
                        -0.041619494557380676
                    ],
                    [
                        0.044142574071884155,
                        -0.05550038814544678,
                        -0.03979501873254776,
                        -0.02171994000673294,
                        -0.05346648022532463
                    ],
                    [
                        0.004355147480964661,
                        -0.03187289834022522,
                        0.07602183520793915,
                        -0.034876499325037,
                        0.00644557923078537
                    ],
                    [
                        -0.05131957679986954,
                        -0.06516581028699875,
                        0.0390663743019104,
                        -0.059327200055122375,
                        -0.04010896012187004
                    ]
                ]
            ],
            [
                [
                    [
                        0.0748080313205719,
                        0.06829975545406342,
                        0.06771840155124664,
                        -0.04206737503409386,
                        -0.04846520721912384
                    ],
                    [
                        0.029731296002864838,
                        -0.03221425786614418,
                        -0.03061334788799286,
                        0.00951501727104187,
                        0.009576328098773956
                    ],
                    [
                        -0.01714557409286499,
                        -0.06500473618507385,
                        0.027999550104141235,
                        0.06161469221115112,
                        -0.03159903734922409
                    ],
                    [
                        -0.014253325760364532,
                        0.03091883659362793,
                        -0.014354661107063293,
                        0.01470974087715149,
                        0.031489335000514984
                    ],
                    [
                        -0.02075093239545822,
                        0.04644571244716644,
                        0.03532452881336212,
                        0.06316231191158295,
                        0.07546526193618774
                    ]
                ],
                [
                    [
                        -0.05115519464015961,
                        0.04338274896144867,
                        -0.019957710057497025,
                        0.07993826270103455,
                        -0.06713299453258514
                    ],
                    [
                        -0.0016324371099472046,
                        0.057837411761283875,
                        -0.08123760670423508,
                        0.06126752495765686,
                        0.030234746634960175
                    ],
                    [
                        -0.030397403985261917,
                        -0.06005477160215378,
                        -0.08028798550367355,
                        0.03485727310180664,
                        0.012832589447498322
                    ],
                    [
                        0.023916542530059814,
                        -0.013411261141300201,
                        0.031446993350982666,
                        -0.013041265308856964,
                        0.06419487297534943
                    ],
                    [
                        0.05979341268539429,
                        -0.07665946334600449,
                        0.045819297432899475,
                        -0.07594805210828781,
                        -0.003970615565776825
                    ]
                ],
                [
                    [
                        -0.07511838525533676,
                        -0.0564274787902832,
                        -0.008569091558456421,
                        0.038853682577610016,
                        0.0674629658460617
                    ],
                    [
                        0.012210197746753693,
                        -0.06069780886173248,
                        0.008308760821819305,
                        -0.06759636104106903,
                        0.03135854750871658
                    ],
                    [
                        0.06927242875099182,
                        -0.07608962059020996,
                        0.054443687200546265,
                        0.07435846328735352,
                        -0.006006546318531036
                    ],
                    [
                        -0.07848571240901947,
                        0.07998782396316528,
                        -0.06318624317646027,
                        0.0630706399679184,
                        -0.027241922914981842
                    ],
                    [
                        -0.019085809588432312,
                        -0.004105851054191589,
                        -0.07942996174097061,
                        0.04981823265552521,
                        -0.050675321370363235
                    ]
                ],
                [
                    [
                        0.05134761333465576,
                        0.04298274219036102,
                        -0.0324874147772789,
                        0.011528447270393372,
                        -0.00935632735490799
                    ],
                    [
                        -0.03619366139173508,
                        0.0016049370169639587,
                        0.014220692217350006,
                        -0.04332641139626503,
                        0.061702191829681396
                    ],
                    [
                        0.006467796862125397,
                        0.022019386291503906,
                        -0.02124727889895439,
                        -0.015831060707569122,
                        -0.048226360231637955
                    ],
                    [
                        0.022517748177051544,
                        0.0727749615907669,
                        0.0032172352075576782,
                        -0.07536779344081879,
                        0.04362189769744873
                    ],
                    [
                        0.04662591218948364,
                        0.07298518717288971,
                        0.06959405541419983,
                        -0.06994430720806122,
                        -0.07788676768541336
                    ]
                ],
                [
                    [
                        0.02641778439283371,
                        0.0210656076669693,
                        -0.06918195635080338,
                        -0.026229366660118103,
                        -0.011919274926185608
                    ],
                    [
                        0.016418449580669403,
                        0.07641719281673431,
                        -0.07624294608831406,
                        0.006113186478614807,
                        0.043410852551460266
                    ],
                    [
                        -0.05908321589231491,
                        0.006083637475967407,
                        -0.05900498852133751,
                        0.05104345083236694,
                        -0.043552596122026443
                    ],
                    [
                        -0.06521161645650864,
                        0.0497518926858902,
                        -0.001785561442375183,
                        -0.02673260122537613,
                        0.06819254159927368
                    ],
                    [
                        0.07793301343917847,
                        0.02825932204723358,
                        0.019488483667373657,
                        0.05084431171417236,
                        -0.07064220309257507
                    ]
                ],
                [
                    [
                        0.03874029964208603,
                        -0.055365853011608124,
                        0.025274530053138733,
                        -0.025994352996349335,
                        -0.0273749977350235
                    ],
                    [
                        -0.07424969971179962,
                        -0.04079178720712662,
                        0.048899561166763306,
                        0.06883715093135834,
                        -0.036562420427799225
                    ],
                    [
                        0.04180213063955307,
                        0.06645514070987701,
                        -0.00626719743013382,
                        -0.07209669798612595,
                        0.0018887445330619812
                    ],
                    [
                        -0.059909697622060776,
                        -0.036413781344890594,
                        -0.003826357424259186,
                        0.008853979408740997,
                        -0.03372740373015404
                    ],
                    [
                        0.06290918588638306,
                        -0.08107536286115646,
                        -0.04349178075790405,
                        0.033617980778217316,
                        -0.07405782490968704
                    ]
                ]
            ],
            [
                [
                    [
                        -0.04899059608578682,
                        -0.026812560856342316,
                        0.03832542151212692,
                        -0.06564700603485107,
                        -0.02715875208377838
                    ],
                    [
                        0.001928471028804779,
                        -0.04180532321333885,
                        -0.05550921708345413,
                        0.03773122280836105,
                        -0.003283359110355377
                    ],
                    [
                        0.05227474868297577,
                        0.043770477175712585,
                        0.04662799835205078,
                        0.01784232258796692,
                        0.004036456346511841
                    ],
                    [
                        -0.032420411705970764,
                        -0.07029639929533005,
                        -0.0678909420967102,
                        -0.07079581916332245,
                        0.06155289709568024
                    ],
                    [
                        0.008673742413520813,
                        0.03984249383211136,
                        0.024150066077709198,
                        0.055011898279190063,
                        0.01889532059431076
                    ]
                ],
                [
                    [
                        -0.08159781247377396,
                        -0.05420105159282684,
                        0.036558590829372406,
                        0.0022308826446533203,
                        -0.07590120285749435
                    ],
                    [
                        -0.04074084013700485,
                        0.04187186062335968,
                        0.0657392293214798,
                        0.017805106937885284,
                        0.0623130202293396
                    ],
                    [
                        0.07244272530078888,
                        0.02134481817483902,
                        -0.024342771619558334,
                        -0.005842708051204681,
                        -0.02353791519999504
                    ],
                    [
                        -0.05029620602726936,
                        -0.04565691575407982,
                        -0.0064786747097969055,
                        -0.008282467722892761,
                        -0.06657584756612778
                    ],
                    [
                        0.026944175362586975,
                        -0.033993832767009735,
                        0.06937095522880554,
                        0.02685510367155075,
                        -0.06811808794736862
                    ]
                ],
                [
                    [
                        0.06621037423610687,
                        0.07752938568592072,
                        0.0517156720161438,
                        0.010639965534210205,
                        -0.03942889720201492
                    ],
                    [
                        0.01956029236316681,
                        0.03765258193016052,
                        0.0790952742099762,
                        0.07330845296382904,
                        0.07683642208576202
                    ],
                    [
                        -0.06910200417041779,
                        -0.01632038503885269,
                        0.04503905773162842,
                        -0.07899466156959534,
                        0.009377174079418182
                    ],
                    [
                        -0.008101776242256165,
                        -0.02830991894006729,
                        0.01985175907611847,
                        -0.008715316653251648,
                        0.023434683680534363
                    ],
                    [
                        0.05857062339782715,
                        0.07098065316677094,
                        0.04156583547592163,
                        -0.024732641875743866,
                        0.06778104603290558
                    ]
                ],
                [
                    [
                        -0.0783844068646431,
                        0.005089074373245239,
                        0.05226831138134003,
                        -0.03662746772170067,
                        -0.029912084341049194
                    ],
                    [
                        0.05124789476394653,
                        -0.059380851686000824,
                        -0.050733812153339386,
                        -0.010121457278728485,
                        0.031158894300460815
                    ],
                    [
                        -0.009067840874195099,
                        0.03509168326854706,
                        0.07829564809799194,
                        0.05720488727092743,
                        0.029092125594615936
                    ],
                    [
                        0.04228004068136215,
                        0.005941480398178101,
                        -0.05609341710805893,
                        -0.007878482341766357,
                        0.07088138163089752
                    ],
                    [
                        -0.07691720128059387,
                        0.07091812789440155,
                        0.013858571648597717,
                        -0.07120117545127869,
                        0.07939569652080536
                    ]
                ],
                [
                    [
                        0.05786699056625366,
                        0.04998977482318878,
                        -0.004338398575782776,
                        0.0532095730304718,
                        0.016198068857192993
                    ],
                    [
                        -0.05893861502408981,
                        -0.004318006336688995,
                        0.07703886926174164,
                        -0.02224212884902954,
                        -0.04166271165013313
                    ],
                    [
                        -0.022825170308351517,
                        0.04493129253387451,
                        0.05599223077297211,
                        -0.061401233077049255,
                        -0.06883663684129715
                    ],
                    [
                        -0.07306540012359619,
                        -0.07074892520904541,
                        0.06896302103996277,
                        -0.014169767498970032,
                        0.02641156315803528
                    ],
                    [
                        -0.020529720932245255,
                        -0.05863059312105179,
                        -0.00507933646440506,
                        0.027290724217891693,
                        -0.03363793343305588
                    ]
                ],
                [
                    [
                        -0.02763974666595459,
                        -0.008619830012321472,
                        0.01061221957206726,
                        -0.031782396137714386,
                        0.059058934450149536
                    ],
                    [
                        0.016311615705490112,
                        -0.01639551669359207,
                        -0.06978601962327957,
                        -0.07274779677391052,
                        -0.009598411619663239
                    ],
                    [
                        0.03706902265548706,
                        0.02336990088224411,
                        0.04053397476673126,
                        0.010702967643737793,
                        -0.0401509664952755
                    ],
                    [
                        0.02012745290994644,
                        0.02685573697090149,
                        -0.01401355117559433,
                        -0.07743122428655624,
                        0.06052437424659729
                    ],
                    [
                        -0.0706295594573021,
                        0.07366722822189331,
                        0.024926893413066864,
                        -0.06878220289945602,
                        -0.03069775551557541
                    ]
                ]
            ],
            [
                [
                    [
                        -0.040878210216760635,
                        -0.05035410821437836,
                        0.026419073343276978,
                        0.06235325336456299,
                        -0.054048292338848114
                    ],
                    [
                        -0.044295623898506165,
                        -0.06753626465797424,
                        -0.0692126452922821,
                        -0.05245264992117882,
                        0.02267785370349884
                    ],
                    [
                        0.018108613789081573,
                        0.0675758421421051,
                        0.04131065309047699,
                        0.026897110044956207,
                        0.0657682716846466
                    ],
                    [
                        0.017587780952453613,
                        -0.03552630916237831,
                        0.05989179015159607,
                        -0.0024398639798164368,
                        -0.08135230839252472
                    ],
                    [
                        -0.004995912313461304,
                        0.033301517367362976,
                        -0.022551055997610092,
                        -0.039835039526224136,
                        0.07286550104618073
                    ]
                ],
                [
                    [
                        -0.02031616121530533,
                        0.02601458877325058,
                        0.05208595097064972,
                        0.06526695191860199,
                        -0.06356780976057053
                    ],
                    [
                        -0.04285206273198128,
                        -0.042460497468709946,
                        0.05298645794391632,
                        0.04581260681152344,
                        -0.05191396176815033
                    ],
                    [
                        0.028429239988327026,
                        0.06584078073501587,
                        -0.03035125508904457,
                        0.03960613161325455,
                        0.003980174660682678
                    ],
                    [
                        0.07128913700580597,
                        0.06446105241775513,
                        -0.04985567182302475,
                        -0.001665256917476654,
                        0.005001917481422424
                    ],
                    [
                        0.017747528851032257,
                        0.04008369892835617,
                        -0.001962214708328247,
                        0.036552153527736664,
                        -0.02481568604707718
                    ]
                ],
                [
                    [
                        0.06822486221790314,
                        0.02109464257955551,
                        -0.02263277769088745,
                        -0.05498094856739044,
                        0.0763319581747055
                    ],
                    [
                        0.05395910143852234,
                        -0.055142249912023544,
                        -0.03585141524672508,
                        -0.0615152046084404,
                        0.010327175259590149
                    ],
                    [
                        0.05764378607273102,
                        0.030289575457572937,
                        0.03996586054563522,
                        0.04458528757095337,
                        0.018950827419757843
                    ],
                    [
                        0.030634276568889618,
                        -0.03561754152178764,
                        -0.017252527177333832,
                        -0.00939718633890152,
                        0.031220033764839172
                    ],
                    [
                        -0.05659015104174614,
                        -0.07165481150150299,
                        0.0451679527759552,
                        -0.018107101321220398,
                        -0.04698021337389946
                    ]
                ],
                [
                    [
                        -0.029838092625141144,
                        -0.05267050117254257,
                        -0.07790764421224594,
                        0.02033073455095291,
                        -0.026030436158180237
                    ],
                    [
                        -0.007771357893943787,
                        -0.0765838772058487,
                        0.0037641003727912903,
                        -0.03136209025979042,
                        0.024169184267520905
                    ],
                    [
                        -0.03626785799860954,
                        -0.03267025947570801,
                        0.06093268096446991,
                        0.05486425757408142,
                        0.051760151982307434
                    ],
                    [
                        -0.0009739995002746582,
                        0.0636780858039856,
                        0.05503763258457184,
                        0.06028364598751068,
                        -0.0685863345861435
                    ],
                    [
                        0.017325811088085175,
                        -0.07208193838596344,
                        -0.016878828406333923,
                        0.0332745686173439,
                        -0.01939823478460312
                    ]
                ],
                [
                    [
                        0.05407652258872986,
                        0.025387264788150787,
                        0.05705203115940094,
                        0.022040635347366333,
                        -0.0030846670269966125
                    ],
                    [
                        -0.029540978372097015,
                        0.07662580907344818,
                        0.012886464595794678,
                        0.004464730620384216,
                        0.05921714007854462
                    ],
                    [
                        0.06769077479839325,
                        0.018755003809928894,
                        0.01701643317937851,
                        0.0471407026052475,
                        -0.06838005036115646
                    ],
                    [
                        -0.0070665255188941956,
                        -0.0029877573251724243,
                        -0.023261800408363342,
                        -0.017485924065113068,
                        0.02731475979089737
                    ],
                    [
                        0.02296070009469986,
                        0.06962248682975769,
                        0.019597746431827545,
                        0.038684576749801636,
                        0.05617775022983551
                    ]
                ],
                [
                    [
                        -0.02991519868373871,
                        -0.04341153800487518,
                        0.07258114218711853,
                        0.038976237177848816,
                        -0.027405209839344025
                    ],
                    [
                        -0.07781241834163666,
                        0.04411458969116211,
                        0.07120499014854431,
                        -0.080685093998909,
                        0.05456414818763733
                    ],
                    [
                        0.08029574155807495,
                        -0.0013842731714248657,
                        -0.08066845685243607,
                        -0.07301744818687439,
                        0.0067108795046806335
                    ],
                    [
                        -0.05557319521903992,
                        -0.01562611758708954,
                        -0.0795297846198082,
                        0.01328238844871521,
                        -0.021722588688135147
                    ],
                    [
                        -0.038233302533626556,
                        -0.02905391901731491,
                        -0.045218292623758316,
                        -0.04366236925125122,
                        0.009721845388412476
                    ]
                ]
            ],
            [
                [
                    [
                        0.03181791305541992,
                        -0.022989459335803986,
                        -0.005907893180847168,
                        0.03557966649532318,
                        -0.05855914205312729
                    ],
                    [
                        -0.05669233202934265,
                        -0.008896790444850922,
                        -0.06907929480075836,
                        -0.03135030344128609,
                        -0.002463199198246002
                    ],
                    [
                        0.03926116228103638,
                        0.04376475512981415,
                        0.06770096719264984,
                        0.03137710690498352,
                        -0.021064378321170807
                    ],
                    [
                        -0.014547325670719147,
                        -0.003536321222782135,
                        0.025376729667186737,
                        0.004578843712806702,
                        0.07889759540557861
                    ],
                    [
                        -0.07644839584827423,
                        -0.037942830473184586,
                        -0.014158345758914948,
                        0.016303837299346924,
                        -0.04141176491975784
                    ]
                ],
                [
                    [
                        -0.029080968350172043,
                        0.07750429213047028,
                        0.05609843134880066,
                        -0.001615181565284729,
                        -0.0809771940112114
                    ],
                    [
                        0.0386069193482399,
                        0.011491701006889343,
                        -0.059110574424266815,
                        0.056448906660079956,
                        -0.03988901153206825
                    ],
                    [
                        0.03410669416189194,
                        0.017071940004825592,
                        -0.05476143956184387,
                        -0.07443367689847946,
                        0.0593167245388031
                    ],
                    [
                        -0.07489629089832306,
                        0.0729755312204361,
                        -0.020305123180150986,
                        0.055435195565223694,
                        0.01565040647983551
                    ],
                    [
                        0.07510501146316528,
                        0.04441532492637634,
                        0.021393820643424988,
                        -0.009250663220882416,
                        -0.013461709022521973
                    ]
                ],
                [
                    [
                        -0.07386981695890427,
                        0.06759408116340637,
                        0.05352562665939331,
                        -0.05014191195368767,
                        -0.06707644462585449
                    ],
                    [
                        0.0004356801509857178,
                        -0.026050377637147903,
                        -0.04617469385266304,
                        -0.06894226372241974,
                        -0.023501485586166382
                    ],
                    [
                        -0.030632056295871735,
                        -0.010395132005214691,
                        -0.051647037267684937,
                        0.015211053192615509,
                        -0.0012629777193069458
                    ],
                    [
                        0.011147014796733856,
                        0.06286029517650604,
                        0.003751002252101898,
                        0.03066166490316391,
                        0.0451299250125885
                    ],
                    [
                        -0.00869540125131607,
                        0.06267547607421875,
                        0.040824905037879944,
                        0.061777591705322266,
                        -0.005074776709079742
                    ]
                ],
                [
                    [
                        -0.011669270694255829,
                        0.07761567831039429,
                        -0.07037407159805298,
                        0.07185967266559601,
                        0.04335172474384308
                    ],
                    [
                        0.06812116503715515,
                        -0.057755209505558014,
                        0.03926520794630051,
                        -0.0762014240026474,
                        0.006094194948673248
                    ],
                    [
                        -0.026974350214004517,
                        0.03128925710916519,
                        -0.06408002227544785,
                        -0.06695844978094101,
                        0.003357835114002228
                    ],
                    [
                        -0.06165062263607979,
                        0.05453959107398987,
                        -0.03134360536932945,
                        0.04890422523021698,
                        0.04540775716304779
                    ],
                    [
                        -0.0371694415807724,
                        -0.0006940886378288269,
                        -0.03513779118657112,
                        0.06130772829055786,
                        -0.04937135800719261
                    ]
                ],
                [
                    [
                        0.020775146782398224,
                        -0.01978510618209839,
                        0.04619944095611572,
                        0.06320421397686005,
                        -0.019650358706712723
                    ],
                    [
                        -0.04638170450925827,
                        -0.06164737045764923,
                        -0.07009809464216232,
                        -0.008404351770877838,
                        0.027912944555282593
                    ],
                    [
                        -0.07299471646547318,
                        0.0544285774230957,
                        0.019948475062847137,
                        -0.012955538928508759,
                        0.016307391226291656
                    ],
                    [
                        0.047557950019836426,
                        0.055684104561805725,
                        -0.06335514783859253,
                        0.051319316029548645,
                        -0.012675493955612183
                    ],
                    [
                        0.06380997598171234,
                        0.0814175009727478,
                        -0.022965844720602036,
                        -0.020864900201559067,
                        -0.05849774181842804
                    ]
                ],
                [
                    [
                        0.055141448974609375,
                        0.07961679995059967,
                        -0.04210331290960312,
                        -0.03666609153151512,
                        0.06679148972034454
                    ],
                    [
                        0.024918347597122192,
                        0.08090503513813019,
                        -0.06432580947875977,
                        0.03394210338592529,
                        0.05780109763145447
                    ],
                    [
                        0.028626002371311188,
                        -0.015406288206577301,
                        0.05913059413433075,
                        -0.0775718167424202,
                        -0.008505746722221375
                    ],
                    [
                        0.029692158102989197,
                        0.016965702176094055,
                        0.01822170615196228,
                        0.051666855812072754,
                        -0.06724539399147034
                    ],
                    [
                        0.054615139961242676,
                        0.05971933901309967,
                        0.020414404571056366,
                        -0.055072121322155,
                        0.07307443022727966
                    ]
                ]
            ],
            [
                [
                    [
                        -0.037715282291173935,
                        0.06454631686210632,
                        -0.07161453366279602,
                        -0.07458917796611786,
                        0.02235414832830429
                    ],
                    [
                        -0.04596054181456566,
                        -0.03369847312569618,
                        -0.0708613246679306,
                        -0.060041818767786026,
                        0.034907564520835876
                    ],
                    [
                        0.013817250728607178,
                        0.03302854299545288,
                        0.013492338359355927,
                        -0.042576394975185394,
                        0.02757503092288971
                    ],
                    [
                        -0.011921912431716919,
                        0.0417284294962883,
                        0.06154817342758179,
                        0.036612480878829956,
                        0.07457205653190613
                    ],
                    [
                        0.0264197438955307,
                        -0.06391048431396484,
                        0.009475328028202057,
                        0.007090829312801361,
                        -0.05118250846862793
                    ]
                ],
                [
                    [
                        0.06592494249343872,
                        -0.030992601066827774,
                        -0.0740891695022583,
                        -0.07048213481903076,
                        0.07037109136581421
                    ],
                    [
                        -0.010588563978672028,
                        -0.014469057321548462,
                        -0.07212331146001816,
                        -0.006755433976650238,
                        -0.037700846791267395
                    ],
                    [
                        -0.01003967970609665,
                        -0.0020796656608581543,
                        -0.06028155982494354,
                        -0.04438648372888565,
                        -0.021320298314094543
                    ],
                    [
                        0.0030158087611198425,
                        0.04816575348377228,
                        -0.06203813850879669,
                        0.03625768423080444,
                        0.05939255654811859
                    ],
                    [
                        0.035896964371204376,
                        0.02860662341117859,
                        0.05024632811546326,
                        0.022827118635177612,
                        0.03849426656961441
                    ]
                ],
                [
                    [
                        0.00017570704221725464,
                        -0.005444057285785675,
                        -0.025688178837299347,
                        -0.011927224695682526,
                        -0.005017012357711792
                    ],
                    [
                        0.0510881245136261,
                        -0.03433671221137047,
                        -0.059907060116529465,
                        0.0780419409275055,
                        -0.077635258436203
                    ],
                    [
                        0.036500707268714905,
                        0.0434766560792923,
                        -0.062173113226890564,
                        0.056557461619377136,
                        0.052541717886924744
                    ],
                    [
                        3.173947334289551e-05,
                        -0.031025119125843048,
                        -0.025013089179992676,
                        -0.07715929299592972,
                        0.018409639596939087
                    ],
                    [
                        -0.07158634066581726,
                        0.07672855257987976,
                        0.05143219232559204,
                        -0.07828809320926666,
                        -0.03318178653717041
                    ]
                ],
                [
                    [
                        -0.050315313041210175,
                        -0.0029511675238609314,
                        0.017463713884353638,
                        -0.04297482967376709,
                        -0.011425137519836426
                    ],
                    [
                        -0.018305718898773193,
                        0.04628157615661621,
                        -0.06964411586523056,
                        0.0324656218290329,
                        -0.01668500155210495
                    ],
                    [
                        0.007834956049919128,
                        -0.029500078409910202,
                        0.011988170444965363,
                        0.08140283823013306,
                        0.06645296514034271
                    ],
                    [
                        -0.04101009666919708,
                        -0.05346369743347168,
                        -0.0625920370221138,
                        0.011238783597946167,
                        0.06791400909423828
                    ],
                    [
                        -0.023652274161577225,
                        0.033066146075725555,
                        -0.026401996612548828,
                        -0.0440613329410553,
                        -0.026013586670160294
                    ]
                ],
                [
                    [
                        0.04000014811754227,
                        -0.07028494775295258,
                        -0.017057962715625763,
                        -0.047503937035799026,
                        0.07839758694171906
                    ],
                    [
                        -0.05072855204343796,
                        -0.06579077988862991,
                        0.046810030937194824,
                        -0.0010836496949195862,
                        0.03721797466278076
                    ],
                    [
                        0.07019957900047302,
                        0.06358318030834198,
                        -0.019622519612312317,
                        -0.015132427215576172,
                        0.0400993674993515
                    ],
                    [
                        -0.023156113922595978,
                        -0.07908471673727036,
                        0.047991544008255005,
                        0.057587847113609314,
                        0.002940565347671509
                    ],
                    [
                        0.017758674919605255,
                        0.017745189368724823,
                        0.07889816164970398,
                        0.022028587758541107,
                        0.07168404757976532
                    ]
                ],
                [
                    [
                        0.05986142158508301,
                        -0.02573516219854355,
                        0.04276411980390549,
                        -0.029559601098299026,
                        0.03413354605436325
                    ],
                    [
                        0.06568320095539093,
                        0.055640071630477905,
                        0.0498843789100647,
                        -0.06373961269855499,
                        0.046669766306877136
                    ],
                    [
                        0.00673067569732666,
                        0.028555691242218018,
                        0.029898956418037415,
                        -0.07103195786476135,
                        -0.009426943957805634
                    ],
                    [
                        -0.007932230830192566,
                        -0.05695033818483353,
                        -0.05274838209152222,
                        0.0018078908324241638,
                        -0.042069535702466965
                    ],
                    [
                        -0.04375531151890755,
                        -0.018479391932487488,
                        0.054627418518066406,
                        -0.01638057827949524,
                        -0.07401753962039948
                    ]
                ]
            ],
            [
                [
                    [
                        -0.0643143504858017,
                        -0.0012198090553283691,
                        -0.07837214320898056,
                        0.009035170078277588,
                        -0.039432574063539505
                    ],
                    [
                        -0.04433349519968033,
                        -0.055250827223062515,
                        0.07190209627151489,
                        -0.07723578065633774,
                        0.00788426399230957
                    ],
                    [
                        -0.03249245882034302,
                        0.03833415359258652,
                        -0.053203463554382324,
                        0.04665425419807434,
                        0.06710995733737946
                    ],
                    [
                        -0.01764298975467682,
                        0.02179732173681259,
                        -0.07040221989154816,
                        -0.006559900939464569,
                        -0.04779108241200447
                    ],
                    [
                        0.03180468827486038,
                        -0.009365268051624298,
                        0.0700426995754242,
                        0.07927973568439484,
                        0.0035365894436836243
                    ]
                ],
                [
                    [
                        0.05721069872379303,
                        -0.00962056964635849,
                        0.01702793687582016,
                        -0.0414038710296154,
                        0.026768557727336884
                    ],
                    [
                        0.0383974090218544,
                        -0.07978644222021103,
                        -0.06883735954761505,
                        0.005553238093852997,
                        -0.026760928332805634
                    ],
                    [
                        -0.035358816385269165,
                        0.06877206265926361,
                        -0.0714133158326149,
                        -0.0029518306255340576,
                        0.043191224336624146
                    ],
                    [
                        -0.04553980380296707,
                        0.020195789635181427,
                        0.040523916482925415,
                        0.06538476049900055,
                        -0.08062715828418732
                    ],
                    [
                        0.054358288645744324,
                        0.0695495754480362,
                        0.028852544724941254,
                        -0.05819881707429886,
                        0.017042994499206543
                    ]
                ],
                [
                    [
                        0.03483162820339203,
                        0.037763938307762146,
                        -0.025380820035934448,
                        -0.03034178540110588,
                        -0.0746607780456543
                    ],
                    [
                        0.018218137323856354,
                        -0.0027284398674964905,
                        0.05301852524280548,
                        -0.04788198322057724,
                        -0.05083463713526726
                    ],
                    [
                        -0.04736112803220749,
                        0.040518634021282196,
                        0.06521031260490417,
                        -0.029508519917726517,
                        0.03509718179702759
                    ],
                    [
                        -0.029285527765750885,
                        -0.0742848664522171,
                        0.024595506489276886,
                        0.0687897801399231,
                        -0.04335052892565727
                    ],
                    [
                        0.05139188468456268,
                        -0.05540822446346283,
                        -0.009800605475902557,
                        0.061671167612075806,
                        0.061810851097106934
                    ]
                ],
                [
                    [
                        -0.0691082626581192,
                        0.002068467438220978,
                        0.07499489188194275,
                        0.015505962073802948,
                        0.06641893088817596
                    ],
                    [
                        -0.053057268261909485,
                        -0.0029550567269325256,
                        -0.06524316221475601,
                        -0.046531014144420624,
                        -0.009099341928958893
                    ],
                    [
                        -0.07286731898784637,
                        -0.05131068080663681,
                        -0.006889477372169495,
                        -0.02320890873670578,
                        0.04466114938259125
                    ],
                    [
                        -0.03271264582872391,
                        -0.042144522070884705,
                        -0.05773259699344635,
                        -0.04562949016690254,
                        0.05775526165962219
                    ],
                    [
                        -0.04577473923563957,
                        0.00439656525850296,
                        0.02142076939344406,
                        -0.0663338452577591,
                        0.029242083430290222
                    ]
                ],
                [
                    [
                        0.06657227873802185,
                        0.022288359701633453,
                        0.07416047155857086,
                        0.04902605712413788,
                        0.03455175459384918
                    ],
                    [
                        0.023707859218120575,
                        0.023317396640777588,
                        -0.03220941871404648,
                        0.014753356575965881,
                        -0.055551256984472275
                    ],
                    [
                        -5.716085433959961e-05,
                        -0.009268835186958313,
                        0.058220550417900085,
                        0.05217991769313812,
                        -0.012007489800453186
                    ],
                    [
                        0.07643704116344452,
                        -0.02756757289171219,
                        -0.05497805029153824,
                        0.061227232217788696,
                        0.012796342372894287
                    ],
                    [
                        0.05930456519126892,
                        0.009931609034538269,
                        0.0701240748167038,
                        -0.006396137177944183,
                        0.034010693430900574
                    ]
                ],
                [
                    [
                        0.06930197775363922,
                        0.048763781785964966,
                        -0.02249903231859207,
                        -0.04715939238667488,
                        0.033489130437374115
                    ],
                    [
                        -0.06665071845054626,
                        0.00025144219398498535,
                        -0.06547445058822632,
                        -0.04826495423913002,
                        -0.05366849899291992
                    ],
                    [
                        -0.061004579067230225,
                        -0.032557856291532516,
                        -0.03132190927863121,
                        0.06926873326301575,
                        -0.03493090718984604
                    ],
                    [
                        -0.06960596144199371,
                        -0.051056597381830215,
                        0.07982464134693146,
                        0.01099233329296112,
                        0.05766594409942627
                    ],
                    [
                        -0.04844306409358978,
                        0.049142926931381226,
                        -0.04922759532928467,
                        -0.08005960285663605,
                        -0.07499299198389053
                    ]
                ]
            ],
            [
                [
                    [
                        -0.03562410920858383,
                        0.07349821925163269,
                        -0.025434914976358414,
                        0.04787202179431915,
                        -0.07721912860870361
                    ],
                    [
                        -0.00719490647315979,
                        -0.07099982351064682,
                        0.07187061011791229,
                        0.06866024434566498,
                        -0.020009666681289673
                    ],
                    [
                        -0.009774334728717804,
                        0.014143623411655426,
                        -0.04896901920437813,
                        0.010531976819038391,
                        0.022198237478733063
                    ],
                    [
                        -0.06651909649372101,
                        0.024502567946910858,
                        -0.05599081516265869,
                        -0.02195301651954651,
                        -0.03336155414581299
                    ],
                    [
                        -0.033629532903432846,
                        7.372349500656128e-05,
                        0.07372917234897614,
                        -0.004792891442775726,
                        -0.05153140425682068
                    ]
                ],
                [
                    [
                        0.07874512672424316,
                        0.038377948105335236,
                        0.02224399894475937,
                        0.02596171945333481,
                        -0.0026295483112335205
                    ],
                    [
                        0.0753893107175827,
                        -0.05465170741081238,
                        0.050563693046569824,
                        -0.011145688593387604,
                        -0.04289507493376732
                    ],
                    [
                        0.002753704786300659,
                        0.04751370847225189,
                        0.021567553281784058,
                        0.06179746985435486,
                        -0.07645151764154434
                    ],
                    [
                        0.07256260514259338,
                        -0.053540073335170746,
                        0.017463281750679016,
                        0.06378993391990662,
                        -0.006957784295082092
                    ],
                    [
                        0.05214877426624298,
                        0.07423630356788635,
                        -0.01985543966293335,
                        0.02177523821592331,
                        0.030724622309207916
                    ]
                ],
                [
                    [
                        -0.015410073101520538,
                        0.02851637452840805,
                        -0.06318125873804092,
                        0.01644422858953476,
                        -0.07593464106321335
                    ],
                    [
                        0.05663236975669861,
                        0.06887751817703247,
                        -0.053759124130010605,
                        -0.012064285576343536,
                        0.04711569845676422
                    ],
                    [
                        0.029212534427642822,
                        -0.005727335810661316,
                        -0.07861977815628052,
                        0.03888562321662903,
                        -0.07006465643644333
                    ],
                    [
                        0.03838963061571121,
                        0.024572379887104034,
                        -0.04293002933263779,
                        0.012252062559127808,
                        -0.07701439410448074
                    ],
                    [
                        0.056551724672317505,
                        0.025888115167617798,
                        0.07786953449249268,
                        0.05402107536792755,
                        -0.0389658585190773
                    ]
                ],
                [
                    [
                        0.06676027178764343,
                        -0.04877927526831627,
                        -0.02907591685652733,
                        0.06981296837329865,
                        0.011777184903621674
                    ],
                    [
                        -0.0654895007610321,
                        0.061683088541030884,
                        -0.010505735874176025,
                        0.05164554715156555,
                        0.03868291527032852
                    ],
                    [
                        -0.03817474842071533,
                        0.03619427978992462,
                        0.03168827295303345,
                        0.06979835033416748,
                        -0.020907778292894363
                    ],
                    [
                        0.04326806962490082,
                        0.03926265984773636,
                        0.03216254711151123,
                        -0.0009449943900108337,
                        0.04929988086223602
                    ],
                    [
                        -0.056581731885671616,
                        -0.013010263442993164,
                        -0.004965484142303467,
                        -0.08052724599838257,
                        0.08088645339012146
                    ]
                ],
                [
                    [
                        0.01212601363658905,
                        -0.04553210735321045,
                        0.008042655885219574,
                        -0.06509945541620255,
                        -0.026844527572393417
                    ],
                    [
                        -0.03926585242152214,
                        0.07176503539085388,
                        -0.051006823778152466,
                        0.04898400604724884,
                        -0.006369173526763916
                    ],
                    [
                        0.029748059809207916,
                        -0.0046638622879981995,
                        0.026865825057029724,
                        -0.06833291053771973,
                        0.021377041935920715
                    ],
                    [
                        -0.05322282388806343,
                        0.044028639793395996,
                        0.04323568940162659,
                        0.030425243079662323,
                        0.029990240931510925
